{"layers":[{"activation":"PASS_VALUE","numberOfNeurons":9},{"activation":"LEAKY_RELU","weights":[-0.18543088,0.8541138,0.50905657,0.61734605,0.58049273,0.8309696,0.84917176,-0.6799251,0.09039366,-0.40383947,-0.92216766,-0.04912007,0.6643214,0.80132234,0.4530872,0.5723243,0.69781303,0.6663594,-0.7891046,0.38659286,0.95663893,-0.31867707,-0.7692157,0.5483761,-0.8091816,0.34222484,-0.75791323,-0.6448475,0.58264065,0.09617472,0.3439381,-0.7790234,0.5496017,-0.23803663,-0.93892944,-0.3476491,-0.3644874,0.9437187,0.0673635,-0.29976678,-0.8408562,-0.21645403,-0.5742091,-0.25766492,0.24845028,-0.6236031,-0.9061947,-0.95750546,-0.550223,0.5253086,-0.56448615,0.33319974,-0.37322283,0.63237834,-0.49430752,-0.9263096,0.9956802,-0.5585865,0.3964492,0.35610878,-0.6941496,0.2693721,-0.5328618,0.37880325,0.072345495,-0.86098063,0.8451512,0.5982504,-0.11323452,-0.13557565,0.25392532,-0.8654648,-0.058368325,0.3100232,0.59059584,-0.32842898,0.5507051,-0.43474352,0.36616576,-0.69987726,0.46309793,0.12875521,-0.7059566,0.74337506,-0.23590052,-0.98653114,-0.842224,-0.16835451,0.022890449,0.2580204,-0.6735114,0.5115174,-0.23940015,0.10720205,-0.33113325,0.04806161,-0.7734685,-0.79060316,-0.57328796,0.2760558,0.62218916,0.8306103,-0.8384049,0.052596807,0.31953955,-0.78028107,-0.97135556,0.6408727],"numberOfNeurons":12},{"activation":"LEAKY_RELU","weights":[0.080586195,0.94976807,0.23698127,-0.79899764,0.8798864,0.034185648,-0.96503854,0.37291348,0.52142537,-0.24060023,-0.6503532,0.008589625,0.96887624,-0.9724473,-0.7154727,0.25333333,-0.9024761,-0.7379179,-0.96061933,-0.39916277,-0.3678912,0.9483805,-0.005488515,0.37397993,0.3438753,-0.8286605,-0.73710155,-0.16223931,-0.59023213,-0.7626728,0.053702712,0.2642852,-0.7641647,0.9523164,-0.16389465,0.58012056,0.34555328,0.34899247,-0.79824865,-0.52222395,0.2432977,0.7484758,0.1866355,0.21594143,-0.12384617,0.7978296,-0.15023017,-0.17594278,0.6074823,-0.509961,0.3683846,-0.4713018,-0.061763287,-0.24783683,-0.41907132,-0.6987424,-0.19671369,0.7396494,0.60421395,-0.736076,-0.35249507,-0.08363652,-0.78461504,-0.03442478,-0.05101943,0.9030036,-0.5000498,0.33887672,0.9844568,0.16974461,-0.26791477,-0.5313077,-0.21364355,0.31696582,-0.48773682,0.54029965,0.064053655,0.9717674,0.3106879,0.8004775,-0.22173858,-0.57505953,0.25495577,0.7681956,-0.22841299,-0.10335219,-0.70994794,0.8935292,-0.14321399,-0.24095237,-0.20734906,-0.59106994,0.8146075,-0.17351794,-0.06455541,0.17775464,0.4041952,0.770911,-0.80218303,-0.7411357,-0.42913854,0.31051958,-0.4351821,-0.08267546,-0.8399757,0.68763137,0.3365246,-0.42988443,0.5047574,-0.610772,-0.19478214,0.21897626,-0.0784117,0.5167879,-0.89971936,0.2529266,0.3799603,0.78531075,-0.46641994,0.9697859,-0.8585193,-0.91592824,0.11573899,0.04452181,-0.9867053,-0.22014499,0.4018787,0.6441673,-0.17553318,-0.44057596,0.34103978,-0.45778465,0.8952106,0.32029903,-0.24520552,-0.08600438,0.48750532,0.31231594,-0.103015184,-0.6010721,-0.35535157,-0.052070975,-0.78122854,0.3023963],"numberOfNeurons":12},{"activation":"SOFTMAX","weights":[0.37045753,-0.86592746,0.98320425,-0.30784023,0.9712137,-0.013872027,-0.7254658,0.74087894,0.571375,-0.12509,-0.20606971,0.50285804,-0.414845,0.09661424,0.72084415,0.82113767,0.32908154,0.36561966,-0.02505982,0.078507066,-0.6742891,0.7894256,-0.9045299,0.7769774,0.28709626,0.12859917,-0.64731276,-0.39484,-0.3290254,0.76341784,-0.15994179,0.7884716,0.24677026,-0.16980565,0.41859186,0.5760231,-0.2524979,0.05756414,0.27878582,0.069589734,-0.34616137,-0.31391358,-0.6340847,0.019591808,0.97546434,0.909356,-0.67361283,-0.6178175],"numberOfNeurons":4}]}